<Network id="47505" birthGen="161" fitness="0.99999998937413725">
  <Nodes>
    <Node type="bias" id="0" />
    <Node type="in" id="1" />
    <Node type="in" id="2" />
    <Node type="in" id="3" />
    <Node type="in" id="4" />
    <Node type="in" id="5" />
    <Node type="in" id="6" />
    <Node type="in" id="7" />
    <Node type="in" id="8" />
    <Node type="in" id="9" />
    <Node type="out" id="10" />
    <Node type="out" id="11" />
    <Node type="out" id="12" />
    <Node type="out" id="13" />
    <Node type="out" id="14" />
    <Node type="out" id="15" />
    <Node type="out" id="16" />
    <Node type="out" id="17" />
    <Node type="out" id="18" />
    <Node type="out" id="19" />
    <Node type="out" id="20" />
    <Node type="out" id="21" />
    <Node type="hid" id="186" />
    <Node type="hid" id="351" />
  </Nodes>
  <Connections>
    <Con id="22" src="0" tgt="10" wght="2.1540205989588173" />
    <Con id="23" src="0" tgt="11" wght="5.5825405428186059" />
    <Con id="24" src="0" tgt="12" wght="-2.76724841826333" />
    <Con id="25" src="0" tgt="13" wght="0.54562718916987774" />
    <Con id="26" src="0" tgt="14" wght="0.55537708103656769" />
    <Con id="27" src="0" tgt="15" wght="1.6199607310695272" />
    <Con id="28" src="0" tgt="16" wght="-0.29918125812017776" />
    <Con id="29" src="0" tgt="17" wght="3.1708342089626131" />
    <Con id="30" src="0" tgt="18" wght="-4.9842253865654813" />
    <Con id="31" src="0" tgt="19" wght="8.8616511912731717" />
    <Con id="32" src="0" tgt="20" wght="1.3116894256818159" />
    <Con id="33" src="0" tgt="21" wght="9.2448979952316837" />
    <Con id="34" src="1" tgt="10" wght="4.071082764076726" />
    <Con id="35" src="1" tgt="11" wght="-3.7234787143964385" />
    <Con id="36" src="1" tgt="12" wght="8.14550496649654" />
    <Con id="37" src="1" tgt="13" wght="4.2222362654216834" />
    <Con id="38" src="1" tgt="14" wght="-6.3750815095275239" />
    <Con id="39" src="1" tgt="15" wght="3.3305871766060591" />
    <Con id="40" src="1" tgt="16" wght="1.6562042401524679" />
    <Con id="41" src="1" tgt="17" wght="6.1080642399988356" />
    <Con id="42" src="1" tgt="18" wght="7.9555547850784407" />
    <Con id="43" src="1" tgt="19" wght="8.58380155646345" />
    <Con id="44" src="1" tgt="20" wght="-1.6757622719191716" />
    <Con id="45" src="1" tgt="21" wght="7.6215277022915373" />
    <Con id="46" src="2" tgt="10" wght="9.2685031033883867" />
    <Con id="47" src="2" tgt="11" wght="1.3094459501445828" />
    <Con id="48" src="2" tgt="12" wght="3.5902583273127675" />
    <Con id="50" src="2" tgt="14" wght="-3.801076167864279" />
    <Con id="51" src="2" tgt="15" wght="10" />
    <Con id="52" src="2" tgt="16" wght="4.5975274934752708" />
    <Con id="53" src="2" tgt="17" wght="-8.42972797516426" />
    <Con id="54" src="2" tgt="18" wght="8.1835148131150017" />
    <Con id="55" src="2" tgt="19" wght="10" />
    <Con id="56" src="2" tgt="20" wght="-6.1869682491544085" />
    <Con id="57" src="2" tgt="21" wght="-4.6114875841885805" />
    <Con id="58" src="3" tgt="10" wght="-7.2621502717179611" />
    <Con id="59" src="3" tgt="11" wght="7.1850167866796255" />
    <Con id="60" src="3" tgt="12" wght="1.1690822871600184" />
    <Con id="62" src="3" tgt="14" wght="-7.2787228579626326" />
    <Con id="63" src="3" tgt="15" wght="7.8946260832191717" />
    <Con id="64" src="3" tgt="16" wght="-3.8778638753974746" />
    <Con id="65" src="3" tgt="17" wght="-3.9430457036771429" />
    <Con id="66" src="3" tgt="18" wght="0.91285538394004107" />
    <Con id="67" src="3" tgt="19" wght="6.0626642006260036" />
    <Con id="68" src="3" tgt="20" wght="7.8346004476770759" />
    <Con id="69" src="3" tgt="21" wght="-5.9313222486525774" />
    <Con id="70" src="4" tgt="10" wght="-3.2610007639645806" />
    <Con id="71" src="4" tgt="11" wght="-8.06394405024796" />
    <Con id="72" src="4" tgt="12" wght="5.5547571864662331" />
    <Con id="73" src="4" tgt="13" wght="-6.0510055890684358" />
    <Con id="74" src="4" tgt="14" wght="-4.788703107219785" />
    <Con id="75" src="4" tgt="15" wght="-4.1090180445462465" />
    <Con id="76" src="4" tgt="16" wght="-7.4213915494701359" />
    <Con id="77" src="4" tgt="17" wght="0.4467604449018836" />
    <Con id="78" src="4" tgt="18" wght="6.1059915731027328" />
    <Con id="79" src="4" tgt="19" wght="3.1115730286449583" />
    <Con id="80" src="4" tgt="20" wght="-3.8162422183148821" />
    <Con id="81" src="4" tgt="21" wght="5.2665972948426774" />
    <Con id="82" src="5" tgt="10" wght="-8.6700059497949322" />
    <Con id="83" src="5" tgt="11" wght="5.1184282333428923" />
    <Con id="84" src="5" tgt="12" wght="-8.7309006864294236" />
    <Con id="85" src="5" tgt="13" wght="-1.9378672424332621" />
    <Con id="88" src="5" tgt="16" wght="1.998903420753777" />
    <Con id="89" src="5" tgt="17" wght="3.7451743750428776" />
    <Con id="90" src="5" tgt="18" wght="-1.0725205594678746" />
    <Con id="91" src="5" tgt="19" wght="1.1676499678482646" />
    <Con id="92" src="5" tgt="20" wght="5.2038794079318222" />
    <Con id="93" src="5" tgt="21" wght="-3.6931111626837834" />
    <Con id="94" src="6" tgt="10" wght="-1.0558090692147371" />
    <Con id="95" src="6" tgt="11" wght="-9.3302734539473384" />
    <Con id="96" src="6" tgt="12" wght="-3.8661780905729932" />
    <Con id="98" src="6" tgt="14" wght="-1.0806395576540355" />
    <Con id="99" src="6" tgt="15" wght="-3.57820509887858" />
    <Con id="100" src="6" tgt="16" wght="-0.013653315501069716" />
    <Con id="101" src="6" tgt="17" wght="7.1085114691603479" />
    <Con id="103" src="6" tgt="19" wght="-4.3396528483752661" />
    <Con id="104" src="6" tgt="20" wght="7.2918037430485469" />
    <Con id="105" src="6" tgt="21" wght="1.8664035154506564" />
    <Con id="106" src="7" tgt="10" wght="-4.332998981255356" />
    <Con id="107" src="7" tgt="11" wght="-8.6344663977662641" />
    <Con id="108" src="7" tgt="12" wght="6.4751474169534635" />
    <Con id="111" src="7" tgt="15" wght="9.1417981426417754" />
    <Con id="112" src="7" tgt="16" wght="-8.8698259102269059" />
    <Con id="113" src="7" tgt="17" wght="4.0490248472625572" />
    <Con id="114" src="7" tgt="18" wght="-2.9860054058571213" />
    <Con id="115" src="7" tgt="19" wght="8.658024163605214" />
    <Con id="116" src="7" tgt="20" wght="-8.2119165958133529" />
    <Con id="117" src="7" tgt="21" wght="0.65905326511710882" />
    <Con id="118" src="8" tgt="10" wght="8.3283263387861712" />
    <Con id="119" src="8" tgt="11" wght="5.195928671805059" />
    <Con id="120" src="8" tgt="12" wght="-6.933046201939403" />
    <Con id="121" src="8" tgt="13" wght="9.2972955220444291" />
    <Con id="122" src="8" tgt="14" wght="1.5978005435300879" />
    <Con id="123" src="8" tgt="15" wght="-3.3120338758453727" />
    <Con id="124" src="8" tgt="16" wght="-7.675708385826054" />
    <Con id="125" src="8" tgt="17" wght="-9.73159866936875" />
    <Con id="126" src="8" tgt="18" wght="9.3401218360130969" />
    <Con id="127" src="8" tgt="19" wght="2.5991025567054749" />
    <Con id="128" src="8" tgt="20" wght="-0.033505009501110017" />
    <Con id="129" src="8" tgt="21" wght="8.6732226411112059" />
    <Con id="130" src="9" tgt="10" wght="-3.7667524706470257" />
    <Con id="131" src="9" tgt="11" wght="-1.4513715589419007" />
    <Con id="132" src="9" tgt="12" wght="5.6103246171232719" />
    <Con id="133" src="9" tgt="13" wght="3.4711991614700777" />
    <Con id="134" src="9" tgt="14" wght="-7.3222685561880354" />
    <Con id="135" src="9" tgt="15" wght="-3.3399164439196567" />
    <Con id="136" src="9" tgt="16" wght="5.0949908840420655" />
    <Con id="137" src="9" tgt="17" wght="4.4803691189736128" />
    <Con id="138" src="9" tgt="18" wght="6.2672913772985339" />
    <Con id="139" src="9" tgt="19" wght="9.2634620487595587" />
    <Con id="140" src="9" tgt="20" wght="6.1053946456499348" />
    <Con id="141" src="9" tgt="21" wght="-2.9729581337802671" />
    <Con id="145" src="5" tgt="15" wght="-0.994032584130764" />
    <Con id="179" src="5" tgt="14" wght="-8.97928620222956" />
    <Con id="187" src="2" tgt="186" wght="-8.26397234107519" />
    <Con id="188" src="186" tgt="17" wght="8.5601747906673928" />
    <Con id="198" src="6" tgt="13" wght="4.115926088258167" />
    <Con id="229" src="6" tgt="18" wght="-6.6078613046556711" />
    <Con id="230" src="186" tgt="11" wght="-8.7122715335543042" />
    <Con id="240" src="186" tgt="10" wght="5.2897940669208765" />
    <Con id="243" src="186" tgt="15" wght="-5.5445613665506244" />
    <Con id="258" src="186" tgt="16" wght="10" />
    <Con id="352" src="1" tgt="351" wght="6.1080642399988356" />
    <Con id="353" src="351" tgt="17" wght="10" />
  </Connections>
</Network>