<Network>
  <Nodes>
    <Node id="0" type="bias"/>
    <Node id="1" type="in"/>
    <Node id="2" type="in"/>
    <Node id="3" type="in"/>
    <Node id="4" type="in"/>
    <Node id="5" type="in"/>
    <Node id="6" type="in"/>
    <Node id="7" type="in"/>
    <Node id="8" type="in"/>
    <Node id="9" type="in"/>
    <Node id="11" type="out"/>
    <Node id="22" type="out"/>
    <Node id="33" type="out"/>
    <Node id="44" type="out"/>
    <Node id="55" type="out"/>
    <Node id="66" type="out"/>
    <Node id="77" type="out"/>
    <Node id="88" type="out"/>
    <Node id="99" type="out"/>
    <Node id="110" type="out"/>
    <Node id="121" type="out"/>
    <Node id="132" type="out"/>
  </Nodes>
  <Connections>
    <Con id="12" src="1" tgt="11" wght="-1.1996944877232023"/>
    <Con id="13" src="2" tgt="11" wght="0.45768439050107546"/>
    <Con id="14" src="3" tgt="11" wght="2.675169066401359"/>
    <Con id="15" src="4" tgt="11" wght="1.9978048688878087"/>
    <Con id="16" src="5" tgt="11" wght="4.631250615535972"/>
    <Con id="17" src="6" tgt="11" wght="-9.851196628648504"/>
    <Con id="18" src="7" tgt="11" wght="0.3110579878670676"/>
    <Con id="19" src="8" tgt="11" wght="6.437585119961669"/>
    <Con id="20" src="9" tgt="11" wght="-4.2428325858816756"/>
    <Con id="21" src="0" tgt="11" wght="3.02243198617175"/>
    <Con id="26" src="4" tgt="22" wght="-3.6457068545405926"/>
    <Con id="27" src="5" tgt="22" wght="4.974237628068476"/>
    <Con id="28" src="6" tgt="22" wght="7.224445524784331"/>
    <Con id="29" src="7" tgt="22" wght="3.982406537631625"/>
    <Con id="30" src="8" tgt="22" wght="2.7187255922868743"/>
    <Con id="31" src="9" tgt="22" wght="-1.281620842353864"/>
    <Con id="32" src="0" tgt="22" wght="-6.1792506930980124"/>
    <Con id="34" src="1" tgt="33" wght="-4.561444672947967"/>
    <Con id="35" src="2" tgt="33" wght="-6.64759959249685"/>
    <Con id="36" src="3" tgt="33" wght="9.039052120914642"/>
    <Con id="37" src="4" tgt="33" wght="7.997818755859196"/>
    <Con id="38" src="5" tgt="33" wght="-8.210849740557506"/>
    <Con id="39" src="6" tgt="33" wght="-3.3005700045605577"/>
    <Con id="40" src="7" tgt="33" wght="3.6255683835618537"/>
    <Con id="41" src="8" tgt="33" wght="-2.9490435127743773"/>
    <Con id="42" src="9" tgt="33" wght="1.3023174293791824"/>
    <Con id="45" src="1" tgt="44" wght="6.675327363452558"/>
    <Con id="46" src="2" tgt="44" wght="3.495314087076394"/>
    <Con id="49" src="5" tgt="44" wght="10.0"/>
    <Con id="50" src="6" tgt="44" wght="-0.26566474055045386"/>
    <Con id="51" src="7" tgt="44" wght="4.565291210931673"/>
    <Con id="52" src="8" tgt="44" wght="-7.746486658904982"/>
    <Con id="53" src="9" tgt="44" wght="-5.583664534774532"/>
    <Con id="54" src="0" tgt="44" wght="3.1271983116968665"/>
    <Con id="56" src="1" tgt="55" wght="-4.660190433504454"/>
    <Con id="57" src="2" tgt="55" wght="-0.20404853162670933"/>
    <Con id="58" src="3" tgt="55" wght="-3.923382860132856"/>
    <Con id="59" src="4" tgt="55" wght="-7.9743366555820625"/>
    <Con id="60" src="5" tgt="55" wght="5.911535664890652"/>
    <Con id="61" src="6" tgt="55" wght="-4.236423123242919"/>
    <Con id="64" src="9" tgt="55" wght="1.6153527308584605"/>
    <Con id="65" src="0" tgt="55" wght="-10.0"/>
    <Con id="67" src="1" tgt="66" wght="-8.061589643020104"/>
    <Con id="68" src="2" tgt="66" wght="1.8068226303051595"/>
    <Con id="69" src="3" tgt="66" wght="9.938224572737226"/>
    <Con id="70" src="4" tgt="66" wght="3.718758590117146"/>
    <Con id="71" src="5" tgt="66" wght="6.536966661084197"/>
    <Con id="72" src="6" tgt="66" wght="0.5399019754456875"/>
    <Con id="73" src="7" tgt="66" wght="3.198497580680333"/>
    <Con id="74" src="8" tgt="66" wght="-2.966891279484262"/>
    <Con id="75" src="9" tgt="66" wght="10.0"/>
    <Con id="76" src="0" tgt="66" wght="-5.729215042529857"/>
    <Con id="78" src="1" tgt="77" wght="2.9812298813297717"/>
    <Con id="79" src="2" tgt="77" wght="1.2564186715056502"/>
    <Con id="80" src="3" tgt="77" wght="-6.351539635861527"/>
    <Con id="81" src="4" tgt="77" wght="-10.0"/>
    <Con id="82" src="5" tgt="77" wght="3.2468287983448327"/>
    <Con id="83" src="6" tgt="77" wght="-3.148932122143356"/>
    <Con id="84" src="7" tgt="77" wght="-4.935796102007573"/>
    <Con id="85" src="8" tgt="77" wght="-8.631982498460669"/>
    <Con id="86" src="9" tgt="77" wght="-8.483900002392549"/>
    <Con id="87" src="0" tgt="77" wght="2.1110057374180755"/>
    <Con id="89" src="1" tgt="88" wght="10.0"/>
    <Con id="90" src="2" tgt="88" wght="-2.106389332216771"/>
    <Con id="91" src="3" tgt="88" wght="-4.045833824781482"/>
    <Con id="92" src="4" tgt="88" wght="10.0"/>
    <Con id="94" src="6" tgt="88" wght="2.0494618584321413"/>
    <Con id="95" src="7" tgt="88" wght="-2.9555265335493237"/>
    <Con id="96" src="8" tgt="88" wght="5.180909104251869"/>
    <Con id="100" src="1" tgt="99" wght="-3.4940158887659987"/>
    <Con id="101" src="2" tgt="99" wght="10.0"/>
    <Con id="102" src="3" tgt="99" wght="-2.805691878840156"/>
    <Con id="104" src="5" tgt="99" wght="-1.3671902659909254"/>
    <Con id="105" src="6" tgt="99" wght="-4.6376389443910835"/>
    <Con id="106" src="7" tgt="99" wght="2.911507416324167"/>
    <Con id="108" src="9" tgt="99" wght="1.7692294844737038"/>
    <Con id="109" src="0" tgt="99" wght="-6.304253605176493"/>
    <Con id="112" src="2" tgt="110" wght="-1.9647636835574183"/>
    <Con id="113" src="3" tgt="110" wght="0.8966796993317159"/>
    <Con id="114" src="4" tgt="110" wght="1.4430075824649666"/>
    <Con id="115" src="5" tgt="110" wght="2.2237594749480984"/>
    <Con id="116" src="6" tgt="110" wght="-3.707460666055094"/>
    <Con id="117" src="7" tgt="110" wght="1.8447515577551294"/>
    <Con id="118" src="8" tgt="110" wght="10.0"/>
    <Con id="119" src="9" tgt="110" wght="-10.0"/>
    <Con id="120" src="0" tgt="110" wght="8.737522769048493"/>
    <Con id="122" src="1" tgt="121" wght="-3.750258715875991"/>
    <Con id="123" src="2" tgt="121" wght="2.0024271042289183"/>
    <Con id="124" src="3" tgt="121" wght="8.505585986715637"/>
    <Con id="126" src="5" tgt="121" wght="-7.35856482191822"/>
    <Con id="127" src="6" tgt="121" wght="4.000517945428019"/>
    <Con id="128" src="7" tgt="121" wght="4.06001999898697"/>
    <Con id="129" src="8" tgt="121" wght="2.7551688645698826"/>
    <Con id="130" src="9" tgt="121" wght="-1.730055503946795"/>
    <Con id="131" src="0" tgt="121" wght="-9.17287037355982"/>
    <Con id="133" src="1" tgt="132" wght="1.132420020886477"/>
    <Con id="134" src="2" tgt="132" wght="-5.83390290645041"/>
    <Con id="135" src="3" tgt="132" wght="-2.138816093211029"/>
    <Con id="136" src="4" tgt="132" wght="-3.513381982166479"/>
    <Con id="137" src="5" tgt="132" wght="-1.5440738225616726"/>
    <Con id="138" src="6" tgt="132" wght="-0.20498534914774796"/>
    <Con id="140" src="8" tgt="132" wght="0.3095699261649578"/>
    <Con id="141" src="9" tgt="132" wght="1.268196397480179"/>
    <Con id="142" src="0" tgt="132" wght="-10.0"/>
  </Connections>
</Network>
